digraph Tree {
node [shape=box, style="filled, rounded", color="black", fontname="helvetica"] ;
edge [fontname="helvetica"] ;
0 [label="X[3] <= 6.5\nsquared_error = 32856.857\nsamples = 12165\nvalue = 188.584", fillcolor="#f6d3b9"] ;
1 [label="X[3] <= 5.5\nsquared_error = 1520.832\nsamples = 3481\nvalue = 32.042", fillcolor="#fef8f4"] ;
0 -> 1 [labeldistance=2.5, labelangle=45, headlabel="True"] ;
2 [label="X[3] <= 1.5\nsquared_error = 900.756\nsamples = 2962\nvalue = 24.662", fillcolor="#fefaf7"] ;
1 -> 2 ;
3 [label="X[5] <= 1.5\nsquared_error = 1533.847\nsamples = 1012\nvalue = 42.785", fillcolor="#fdf6f0"] ;
2 -> 3 ;
4 [label="X[9] <= 0.356\nsquared_error = 1967.565\nsamples = 284\nvalue = 83.162", fillcolor="#fbece1"] ;
3 -> 4 ;
5 [label="squared_error = 854.299\nsamples = 105\nvalue = 48.21", fillcolor="#fdf4ee"] ;
4 -> 5 ;
6 [label="squared_error = 1483.608\nsamples = 179\nvalue = 103.665", fillcolor="#fae7d9"] ;
4 -> 6 ;
7 [label="X[3] <= 0.5\nsquared_error = 480.526\nsamples = 728\nvalue = 27.033", fillcolor="#fef9f6"] ;
3 -> 7 ;
8 [label="squared_error = 605.169\nsamples = 362\nvalue = 36.069", fillcolor="#fdf7f3"] ;
7 -> 8 ;
9 [label="squared_error = 196.611\nsamples = 366\nvalue = 18.096", fillcolor="#fefcfa"] ;
7 -> 9 ;
10 [label="X[5] <= 1.5\nsquared_error = 313.298\nsamples = 1950\nvalue = 15.257", fillcolor="#fefcfb"] ;
2 -> 10 ;
11 [label="X[3] <= 2.5\nsquared_error = 632.271\nsamples = 574\nvalue = 25.193", fillcolor="#fefaf7"] ;
10 -> 11 ;
12 [label="squared_error = 692.276\nsamples = 145\nvalue = 56.766", fillcolor="#fcf2eb"] ;
11 -> 12 ;
13 [label="squared_error = 161.201\nsamples = 429\nvalue = 14.522", fillcolor="#fefcfb"] ;
11 -> 13 ;
14 [label="X[3] <= 4.5\nsquared_error = 121.87\nsamples = 1376\nvalue = 11.112", fillcolor="#fffdfc"] ;
10 -> 14 ;
15 [label="squared_error = 35.682\nsamples = 1020\nvalue = 6.711", fillcolor="#fffefe"] ;
14 -> 15 ;
16 [label="squared_error = 154.302\nsamples = 356\nvalue = 23.722", fillcolor="#fefaf7"] ;
14 -> 16 ;
17 [label="X[6] <= 0.5\nsquared_error = 2974.771\nsamples = 519\nvalue = 74.162", fillcolor="#fceee4"] ;
1 -> 17 ;
18 [label="X[0] <= 0.5\nsquared_error = 269.567\nsamples = 166\nvalue = 17.783", fillcolor="#fefcfa"] ;
17 -> 18 ;
19 [label="X[1] <= 0.5\nsquared_error = 15.273\nsamples = 47\nvalue = 5.702", fillcolor="#fffffe"] ;
18 -> 19 ;
20 [label="squared_error = 7.812\nsamples = 22\nvalue = 3.773", fillcolor="#ffffff"] ;
19 -> 20 ;
21 [label="squared_error = 15.68\nsamples = 25\nvalue = 7.4", fillcolor="#fffefe"] ;
19 -> 21 ;
22 [label="X[1] <= 0.5\nsquared_error = 289.592\nsamples = 119\nvalue = 22.555", fillcolor="#fefaf8"] ;
18 -> 22 ;
23 [label="squared_error = 87.713\nsamples = 62\nvalue = 16.355", fillcolor="#fefcfa"] ;
22 -> 23 ;
24 [label="squared_error = 421.894\nsamples = 57\nvalue = 29.298", fillcolor="#fef9f5"] ;
22 -> 24 ;
25 [label="X[0] <= 0.5\nsquared_error = 2049.268\nsamples = 353\nvalue = 100.674", fillcolor="#fae8da"] ;
17 -> 25 ;
26 [label="X[1] <= 0.5\nsquared_error = 913.857\nsamples = 90\nvalue = 57.622", fillcolor="#fcf2eb"] ;
25 -> 26 ;
27 [label="squared_error = 138.881\nsamples = 45\nvalue = 32.911", fillcolor="#fef8f4"] ;
26 -> 27 ;
28 [label="squared_error = 467.556\nsamples = 45\nvalue = 82.333", fillcolor="#fbece1"] ;
26 -> 28 ;
29 [label="X[1] <= 0.5\nsquared_error = 1586.492\nsamples = 263\nvalue = 115.407", fillcolor="#f9e4d5"] ;
25 -> 29 ;
30 [label="squared_error = 687.506\nsamples = 138\nvalue = 91.971", fillcolor="#fbeade"] ;
29 -> 30 ;
31 [label="squared_error = 1303.194\nsamples = 125\nvalue = 141.28", fillcolor="#f8decb"] ;
29 -> 31 ;
32 [label="X[8] <= 0.49\nsquared_error = 31657.329\nsamples = 8684\nvalue = 251.335", fillcolor="#f3c4a2"] ;
0 -> 32 [labeldistance=2.5, labelangle=-45, headlabel="False"] ;
33 [label="X[1] <= 0.5\nsquared_error = 19401.534\nsamples = 3951\nvalue = 175.635", fillcolor="#f6d6be"] ;
32 -> 33 ;
34 [label="X[0] <= 1.5\nsquared_error = 8923.721\nsamples = 2019\nvalue = 125.186", fillcolor="#f9e2d1"] ;
33 -> 34 ;
35 [label="X[3] <= 19.5\nsquared_error = 5117.464\nsamples = 1340\nvalue = 99.043", fillcolor="#fae8db"] ;
34 -> 35 ;
36 [label="squared_error = 5634.134\nsamples = 983\nvalue = 114.4", fillcolor="#fae4d5"] ;
35 -> 36 ;
37 [label="squared_error = 1257.522\nsamples = 357\nvalue = 56.759", fillcolor="#fcf2eb"] ;
35 -> 37 ;
38 [label="X[3] <= 20.5\nsquared_error = 12424.72\nsamples = 679\nvalue = 176.779", fillcolor="#f6d5be"] ;
34 -> 38 ;
39 [label="squared_error = 12867.617\nsamples = 541\nvalue = 198.608", fillcolor="#f5d0b5"] ;
38 -> 39 ;
40 [label="squared_error = 1497.104\nsamples = 138\nvalue = 91.203", fillcolor="#fbeade"] ;
38 -> 40 ;
41 [label="X[3] <= 19.5\nsquared_error = 24911.973\nsamples = 1932\nvalue = 228.356", fillcolor="#f4c9aa"] ;
33 -> 41 ;
42 [label="X[0] <= 0.5\nsquared_error = 26492.843\nsamples = 1452\nvalue = 263.681", fillcolor="#f2c19d"] ;
41 -> 42 ;
43 [label="squared_error = 15901.544\nsamples = 737\nvalue = 203.59", fillcolor="#f5cfb4"] ;
42 -> 43 ;
44 [label="squared_error = 29851.461\nsamples = 715\nvalue = 325.621", fillcolor="#efb286"] ;
42 -> 44 ;
45 [label="X[3] <= 21.5\nsquared_error = 4936.4\nsamples = 480\nvalue = 121.498", fillcolor="#f9e3d3"] ;
41 -> 45 ;
46 [label="squared_error = 5539.929\nsamples = 230\nvalue = 159.178", fillcolor="#f7dac4"] ;
45 -> 46 ;
47 [label="squared_error = 1873.204\nsamples = 250\nvalue = 86.832", fillcolor="#fbebe0"] ;
45 -> 47 ;
48 [label="X[1] <= 0.5\nsquared_error = 33111.373\nsamples = 4733\nvalue = 314.527", fillcolor="#f0b48a"] ;
32 -> 48 ;
49 [label="X[3] <= 20.5\nsquared_error = 16786.523\nsamples = 2316\nvalue = 244.956", fillcolor="#f3c5a4"] ;
48 -> 49 ;
50 [label="X[3] <= 15.5\nsquared_error = 16988.069\nsamples = 1938\nvalue = 264.928", fillcolor="#f2c09c"] ;
49 -> 50 ;
51 [label="squared_error = 12425.434\nsamples = 1229\nvalue = 221.014", fillcolor="#f4cbad"] ;
50 -> 51 ;
52 [label="squared_error = 15759.768\nsamples = 709\nvalue = 341.049", fillcolor="#eeae80"] ;
50 -> 52 ;
53 [label="X[3] <= 21.5\nsquared_error = 3222.882\nsamples = 378\nvalue = 142.558", fillcolor="#f8decb"] ;
49 -> 53 ;
54 [label="squared_error = 3187.783\nsamples = 129\nvalue = 185.318", fillcolor="#f6d3ba"] ;
53 -> 54 ;
55 [label="squared_error = 1803.092\nsamples = 249\nvalue = 120.406", fillcolor="#f9e3d3"] ;
53 -> 55 ;
56 [label="X[3] <= 20.5\nsquared_error = 39672.122\nsamples = 2417\nvalue = 381.19", fillcolor="#eca471"] ;
48 -> 56 ;
57 [label="X[3] <= 15.5\nsquared_error = 38560.25\nsamples = 2006\nvalue = 417.933", fillcolor="#ea9c63"] ;
56 -> 57 ;
58 [label="squared_error = 27962.607\nsamples = 1237\nvalue = 349.209", fillcolor="#eeac7d"] ;
57 -> 58 ;
59 [label="squared_error = 35789.308\nsamples = 769\nvalue = 528.481", fillcolor="#e58139"] ;
57 -> 59 ;
60 [label="X[3] <= 21.5\nsquared_error = 6349.043\nsamples = 411\nvalue = 201.856", fillcolor="#f5cfb4"] ;
56 -> 60 ;
61 [label="squared_error = 4579.565\nsamples = 138\nvalue = 263.681", fillcolor="#f2c19d"] ;
60 -> 61 ;
62 [label="squared_error = 4334.664\nsamples = 273\nvalue = 170.604", fillcolor="#f7d7c0"] ;
60 -> 62 ;
}